SVM-light Version V6.20
0 # kernel type
3 # kernel parameter -d 
1 # kernel parameter -g 
1 # kernel parameter -s 
1 # kernel parameter -r 
empty# kernel parameter -u 
700 # highest feature index 
45 # number of training documents 
2 # number of support vectors plus 1 
0 # threshold b, each following line is a SV (starting with alpha*y)
1 1:0.01286343 2:-0.038924415 6:0.1452127 7:-0.047566138 8:0.076885633 9:0.075725548 10:0.0041911285 11:0.09377341 17:-0.2388407 18:-0.022646107 20:-0.0048235124 21:-0.061212584 22:-0.00065434037 23:0.012331408 25:0.049410839 26:-0.00056848128 27:-0.20806892 30:-0.080445178 31:0.023119951 32:0.12841636 33:0.042604238 34:0.060751341 36:0.30837679 37:0.20966762 41:-0.016473321 43:0.09018968 44:0.089435101 45:0.028484358 46:0.022393918 47:-0.00065434037 48:0.10814506 55:-0.12072597 56:-0.0047300206 58:-0.01152085 60:-0.0062864246 62:0.025548795 64:0.0070602391 66:0.012345991 67:-0.002535902 69:-0.046605319 70:0.017222131 74:0.050583724 75:0.00027503647 76:0.081738152 77:-0.11445067 78:-0.066860542 79:0.022132751 80:-0.019763697 81:-0.017066412 82:0.025076106 83:0.19657096 85:-0.0012544213 86:-0.0079140784 87:-0.042272411 88:0.024188148 89:0.00072504551 91:0.06170832 96:-0.054163594 97:-0.032814596 98:-0.0053437157 99:0.031437404 100:0.027628407 101:0.10737576 102:-0.0475026 104:0.17327215 106:-0.024350632 107:0.0047752163 108:0.039443724 110:0.0037636589 111:-0.052268256 114:0.081695557 117:-0.03462556 120:-0.011901052 121:-0.03975711 122:0.011562203 123:0.12263282 124:-0.037685174 125:0.0059513371 126:-0.017944373 127:0.090212174 128:0.012304458 129:0.019606402 131:-0.01435335 132:-0.16178046 133:-0.022721954 135:-0.025204621 137:0.023119951 138:0.03461042 139:0.0061393389 140:-0.037356 141:-0.011040702 143:0.016410442 144:0.19498549 145:-0.061004344 146:0.046222921 147:0.056870613 149:0.051177137 150:-0.018051764 151:0.063199788 152:0.027595064 153:0.026055029 154:0.096603476 155:0.064102568 157:0.072626881 158:-0.00024261595 159:-0.0062316637 160:0.0051035727 162:0.01806128 163:-0.076013409 164:0.025584884 165:0.056875456 166:0.015123243 167:0.046244401 168:0.012304458 169:-0.057824474 172:0.053327803 173:-0.1135737 174:-0.0036247014 175:-0.038334586 176:0.029451286 177:0.065462328 178:-0.048812147 179:-0.04219839 182:0.056117043 186:0.0070415172 187:-0.021775195 189:0.11998332 190:-0.138917 191:0.096812211 192:0.039066769 193:0.025399365 195:-0.051200815 196:0.019222071 197:0.0029226996 199:-0.0053938343 201:-0.059145309 202:-0.13893706 204:0.016144866 205:0.011382265 206:-0.024350632 208:0.057566285 212:-0.11969616 215:0.060354393 216:-0.015448838 219:-0.053273845 220:-0.035358813 223:-0.00060208037 224:-0.011292608 225:0.00069410622 226:0.0035726181 227:-0.034464255 228:0.020823631 229:-0.016893696 230:-0.049951714 231:0.0051635825 232:0.085462824 233:-0.021247508 234:-0.013342317 235:-0.067006871 236:0.040199518 238:0.0076878318 239:0.0081785144 240:0.0020281114 241:0.073059127 242:-0.020197904 243:-0.1355672 244:0.036710516 245:0.024987886 246:-0.02220444 247:-0.035466101 248:0.079865411 251:0.064988047 253:0.04607949 254:-0.0236458 255:0.050980598 256:0.0099627748 257:-0.057463046 259:0.052233886 260:-0.0068837423 261:0.065965526 262:-0.00065434037 265:-0.0095430631 266:0.064772248 267:0.067504339 268:0.020769034 274:-0.01327291 275:-0.00016814881 276:-0.018526806 277:-0.017773258 279:0.01019475 281:0.02175203 282:-0.080712669 283:0.03988276 284:0.016363675 285:0.01350997 286:-0.0015658576 287:-0.019550767 288:-0.002535902 289:0.00079927058 290:0.081695557 291:0.042604238 292:-0.054393709 294:0.0067107901 295:-0.051366571 297:-0.02254713 298:0.0091823926 299:0.021142656 300:-0.015848782 301:0.00056674925 302:0.10395627 304:0.020656398 305:0.01687723 308:0.049410839 309:-0.040173139 311:-0.0042811623 312:-0.056651652 313:-0.053438108 316:0.064988047 317:0.052945051 319:-0.042272411 321:0.0048696999 322:0.018293437 323:0.016418371 324:-0.013630964 325:-0.0053348024 326:0.060222056 329:0.00054599444 330:0.040754866 331:-0.0028786783 332:-0.064887032 335:0.011784914 337:0.14817807 338:0.0015198905 340:0.064988047 341:-0.072645731 342:0.0007154732 344:-0.027640214 345:0.037406288 347:0.055417512 348:0.056026977 349:0.00073404197 350:0.057797294 352:0.0015197411 354:-0.00065434037 355:0.020046214 356:-0.017737195 358:0.025938712 359:0.089649394 361:-0.019767346 362:0.032090109 363:-0.085802168 366:0.093856141 369:-0.020466734 372:-0.062882952 374:0.010161933 375:0.049410839 376:0.069138013 377:-0.040407129 378:0.00037581951 379:-0.065249719 381:0.22003052 382:-0.0072791302 383:0.05789347 384:0.01687723 385:0.099725038 387:-0.06591443 388:0.067276351 389:0.12936872 390:0.016002733 391:-0.002535902 392:-0.024350632 394:0.044956733 395:0.080576673 397:0.030807858 398:0.025065059 399:0.041366778 400:0.026489602 401:0.067276351 404:-0.0076154834 405:-0.046179425 408:0.030032739 410:0.040587436 412:-0.0070955469 414:0.37284619 416:0.016443133 417:0.095035262 418:-0.037874445 421:-0.01203911 423:0.067276351 425:0.020823631 426:0.10250548 427:0.0032217358 428:-0.17191179 429:0.014036377 430:0.01195819 431:-0.076891281 432:-0.045175739 433:-0.013871823 434:0.086706966 435:0.053295147 436:0.050942484 437:0.051138107 438:0.013744628 439:0.092550896 440:0.0029264898 442:0.1091243 443:0.072068408 444:0.058193322 445:0.0019017303 446:0.063200153 447:-0.043994248 448:0.064988047 450:0.056218587 451:-0.11853687 452:0.13089025 453:0.061486445 454:-0.038106561 455:-0.042272411 456:-0.040521279 457:-0.056651652 458:0.13945489 459:-0.15024687 461:0.0045686252 463:0.075408965 468:0.0070416671 469:-0.042272411 470:0.02445953 473:0.014965604 474:0.013002824 475:-0.068276852 476:0.00073801144 477:0.042136896 478:-0.03462556 479:-0.03462556 480:0.030966356 481:-0.027333749 483:-0.084671445 485:0.038830638 486:0.020701587 487:-0.0092539405 488:-0.015660567 492:0.054672882 493:-0.03462556 494:0.054672882 495:-0.034196269 497:0.029226024 498:0.016200732 499:-0.13900158 500:-0.0040789372 504:-0.018892175 505:0.0077972319 508:-0.069973782 511:0.01884486 512:-0.002535902 513:-0.0019977831 514:0.079979762 515:0.068219416 517:0.020823631 518:-0.0796986 519:-0.0036401602 521:0.047378127 525:0.061217964 527:0.07622426 528:0.027226444 529:0.013551705 531:-0.0041484036 532:-0.0018489142 533:0.0066962806 534:0.041363388 535:-0.017408954 538:0.046193004 539:-0.0027591567 540:0.030374665 541:0.079363063 542:0.037589125 544:-7.6433891e-05 545:0.0052893227 546:-0.0065031778 548:-0.062967122 554:-0.0040789372 555:0.042604238 556:0.051884841 557:0.0019420175 558:-0.045299776 559:0.049410839 561:0.016369648 562:0.12168323 563:-0.063628964 564:-5.8275371e-05 565:0.044956733 568:0.01279619 569:-0.052003603 570:0.0024534282 571:0.0035853214 572:-0.050409805 574:0.063763395 575:0.087924398 578:0.10463637 579:0.012009205 580:0.017174089 581:-0.059148669 583:-0.051692616 585:-0.077706732 586:0.055417512 587:0.036014561 589:0.016200732 591:0.067276351 592:0.063313559 594:-0.085630886 595:0.081374802 596:-0.03483133 598:0.014870825 600:0.055110659 602:0.060313225 604:0.033455372 605:0.053409602 606:0.021495888 607:0.014340086 608:-0.026921116 610:0.017000778 611:0.021571904 612:0.0013241447 613:-0.05196511 614:0.04854852 615:-0.0024813996 616:0.021006884 618:0.010392599 620:0.013781933 622:-0.0068837423 623:-0.03400309 624:-0.00180737 625:0.023927618 627:0.013270907 628:-0.02113411 629:-0.024350632 631:0.032612052 633:0.043141432 634:0.04564653 636:0.049792156 637:0.093067072 638:-0.017606037 639:-0.0028638525 640:0.012990353 641:0.077842563 642:-0.030872051 643:-0.079141855 644:0.10612553 645:0.0006892854 648:-0.15536425 650:0.012219159 654:0.053556789 656:-0.047881335 657:0.037734494 658:0.015418572 659:-0.14293471 660:-0.049413439 661:0.00044032244 663:0.0013834477 664:-0.029916942 665:-0.022200307 666:0.038127851 669:-0.041622233 670:0.15836827 671:0.076564476 674:-0.0071371938 676:0.016398311 677:0.16964611 678:0.016410442 680:0.024043791 681:0.042604238 682:0.0083798142 685:-0.0014243008 686:0.024641583 687:0.046766017 688:0.020823631 689:-0.048328161 690:0.0043457928 691:0.088005587 692:0.032265704 693:0.0019419235 694:-0.065135278 695:-0.036390159 696:-0.068526886 697:0.001449795 698:0.057565585 699:0.15125376 #
